digraph Tree {
node [shape=box] ;
0 [label="X[1] <= 0.5\ngini = 0.485\nsamples = 642\nvalue = [376, 266]"] ;
1 [label="X[0] <= 1.5\ngini = 0.328\nsamples = 397\nvalue = [315, 82]"] ;
0 -> 1 [labeldistance=2.5, labelangle=45, headlabel="True"] ;
2 [label="X[2] <= 36.5\ngini = 0.488\nsamples = 92\nvalue = [53, 39]"] ;
1 -> 2 ;
3 [label="X[5] <= 27.15\ngini = 0.482\nsamples = 37\nvalue = [15, 22]"] ;
2 -> 3 ;
4 [label="gini = 0.0\nsamples = 5\nvalue = [0, 5]"] ;
3 -> 4 ;
5 [label="X[2] <= 17.5\ngini = 0.498\nsamples = 32\nvalue = [15, 17]"] ;
3 -> 5 ;
6 [label="gini = 0.0\nsamples = 4\nvalue = [0, 4]"] ;
5 -> 6 ;
7 [label="X[2] <= 22.5\ngini = 0.497\nsamples = 28\nvalue = [15, 13]"] ;
5 -> 7 ;
8 [label="gini = 0.0\nsamples = 4\nvalue = [4, 0]"] ;
7 -> 8 ;
9 [label="X[2] <= 27.5\ngini = 0.497\nsamples = 24\nvalue = [11, 13]"] ;
7 -> 9 ;
10 [label="X[5] <= 70.044\ngini = 0.346\nsamples = 9\nvalue = [2, 7]"] ;
9 -> 10 ;
11 [label="gini = 0.0\nsamples = 5\nvalue = [0, 5]"] ;
10 -> 11 ;
12 [label="gini = 0.5\nsamples = 4\nvalue = [2, 2]"] ;
10 -> 12 ;
13 [label="X[2] <= 31.5\ngini = 0.48\nsamples = 15\nvalue = [9, 6]"] ;
9 -> 13 ;
14 [label="X[5] <= 48.798\ngini = 0.346\nsamples = 9\nvalue = [7, 2]"] ;
13 -> 14 ;
15 [label="gini = 0.375\nsamples = 4\nvalue = [3, 1]"] ;
14 -> 15 ;
16 [label="gini = 0.32\nsamples = 5\nvalue = [4, 1]"] ;
14 -> 16 ;
17 [label="gini = 0.444\nsamples = 6\nvalue = [2, 4]"] ;
13 -> 17 ;
18 [label="X[3] <= 0.5\ngini = 0.427\nsamples = 55\nvalue = [38, 17]"] ;
2 -> 18 ;
19 [label="X[5] <= 31.66\ngini = 0.346\nsamples = 36\nvalue = [28, 8]"] ;
18 -> 19 ;
20 [label="X[5] <= 26.144\ngini = 0.455\nsamples = 20\nvalue = [13, 7]"] ;
19 -> 20 ;
21 [label="gini = 0.0\nsamples = 5\nvalue = [5, 0]"] ;
20 -> 21 ;
22 [label="X[2] <= 53.5\ngini = 0.498\nsamples = 15\nvalue = [8, 7]"] ;
20 -> 22 ;
23 [label="X[5] <= 27.135\ngini = 0.48\nsamples = 10\nvalue = [4, 6]"] ;
22 -> 23 ;
24 [label="gini = 0.32\nsamples = 5\nvalue = [1, 4]"] ;
23 -> 24 ;
25 [label="gini = 0.48\nsamples = 5\nvalue = [3, 2]"] ;
23 -> 25 ;
26 [label="gini = 0.32\nsamples = 5\nvalue = [4, 1]"] ;
22 -> 26 ;
27 [label="X[5] <= 37.0\ngini = 0.117\nsamples = 16\nvalue = [15, 1]"] ;
19 -> 27 ;
28 [label="gini = 0.278\nsamples = 6\nvalue = [5, 1]"] ;
27 -> 28 ;
29 [label="gini = 0.0\nsamples = 10\nvalue = [10, 0]"] ;
27 -> 29 ;
30 [label="X[2] <= 49.5\ngini = 0.499\nsamples = 19\nvalue = [10, 9]"] ;
18 -> 30 ;
31 [label="X[2] <= 47.0\ngini = 0.486\nsamples = 12\nvalue = [5, 7]"] ;
30 -> 31 ;
32 [label="gini = 0.49\nsamples = 7\nvalue = [4, 3]"] ;
31 -> 32 ;
33 [label="gini = 0.32\nsamples = 5\nvalue = [1, 4]"] ;
31 -> 33 ;
34 [label="gini = 0.408\nsamples = 7\nvalue = [5, 2]"] ;
30 -> 34 ;
35 [label="X[2] <= 9.5\ngini = 0.242\nsamples = 305\nvalue = [262, 43]"] ;
1 -> 35 ;
36 [label="X[3] <= 2.5\ngini = 0.499\nsamples = 23\nvalue = [11, 12]"] ;
35 -> 36 ;
37 [label="gini = 0.0\nsamples = 11\nvalue = [0, 11]"] ;
36 -> 37 ;
38 [label="X[4] <= 1.5\ngini = 0.153\nsamples = 12\nvalue = [11, 1]"] ;
36 -> 38 ;
39 [label="gini = 0.0\nsamples = 7\nvalue = [7, 0]"] ;
38 -> 39 ;
40 [label="gini = 0.32\nsamples = 5\nvalue = [4, 1]"] ;
38 -> 40 ;
41 [label="X[2] <= 32.25\ngini = 0.196\nsamples = 282\nvalue = [251, 31]"] ;
35 -> 41 ;
42 [label="X[2] <= 31.5\ngini = 0.227\nsamples = 192\nvalue = [167, 25]"] ;
41 -> 42 ;
43 [label="X[0] <= 2.5\ngini = 0.205\nsamples = 181\nvalue = [160, 21]"] ;
42 -> 43 ;
44 [label="X[2] <= 30.5\ngini = 0.087\nsamples = 44\nvalue = [42, 2]"] ;
43 -> 44 ;
45 [label="X[5] <= 11.0\ngini = 0.049\nsamples = 40\nvalue = [39, 1]"] ;
44 -> 45 ;
46 [label="X[2] <= 23.5\ngini = 0.198\nsamples = 9\nvalue = [8, 1]"] ;
45 -> 46 ;
47 [label="gini = 0.375\nsamples = 4\nvalue = [3, 1]"] ;
46 -> 47 ;
48 [label="gini = 0.0\nsamples = 5\nvalue = [5, 0]"] ;
46 -> 48 ;
49 [label="gini = 0.0\nsamples = 31\nvalue = [31, 0]"] ;
45 -> 49 ;
50 [label="gini = 0.375\nsamples = 4\nvalue = [3, 1]"] ;
44 -> 50 ;
51 [label="X[2] <= 25.5\ngini = 0.239\nsamples = 137\nvalue = [118, 19]"] ;
43 -> 51 ;
52 [label="X[5] <= 15.921\ngini = 0.201\nsamples = 97\nvalue = [86, 11]"] ;
51 -> 52 ;
53 [label="X[3] <= 0.5\ngini = 0.225\nsamples = 85\nvalue = [74, 11]"] ;
52 -> 53 ;
54 [label="X[5] <= 7.24\ngini = 0.171\nsamples = 74\nvalue = [67, 7]"] ;
53 -> 54 ;
55 [label="X[5] <= 7.133\ngini = 0.355\nsamples = 13\nvalue = [10, 3]"] ;
54 -> 55 ;
56 [label="gini = 0.0\nsamples = 7\nvalue = [7, 0]"] ;
55 -> 56 ;
57 [label="gini = 0.5\nsamples = 6\nvalue = [3, 3]"] ;
55 -> 57 ;
58 [label="X[2] <= 19.5\ngini = 0.123\nsamples = 61\nvalue = [57, 4]"] ;
54 -> 58 ;
59 [label="X[5] <= 8.104\ngini = 0.236\nsamples = 22\nvalue = [19, 3]"] ;
58 -> 59 ;
60 [label="X[5] <= 7.973\ngini = 0.355\nsamples = 13\nvalue = [10, 3]"] ;
59 -> 60 ;
61 [label="gini = 0.0\nsamples = 8\nvalue = [8, 0]"] ;
60 -> 61 ;
62 [label="gini = 0.48\nsamples = 5\nvalue = [2, 3]"] ;
60 -> 62 ;
63 [label="gini = 0.0\nsamples = 9\nvalue = [9, 0]"] ;
59 -> 63 ;
64 [label="X[5] <= 7.798\ngini = 0.05\nsamples = 39\nvalue = [38, 1]"] ;
58 -> 64 ;
65 [label="X[5] <= 7.754\ngini = 0.153\nsamples = 12\nvalue = [11, 1]"] ;
64 -> 65 ;
66 [label="gini = 0.0\nsamples = 8\nvalue = [8, 0]"] ;
65 -> 66 ;
67 [label="gini = 0.375\nsamples = 4\nvalue = [3, 1]"] ;
65 -> 67 ;
68 [label="gini = 0.0\nsamples = 27\nvalue = [27, 0]"] ;
64 -> 68 ;
69 [label="X[5] <= 7.513\ngini = 0.463\nsamples = 11\nvalue = [7, 4]"] ;
53 -> 69 ;
70 [label="gini = 0.0\nsamples = 5\nvalue = [5, 0]"] ;
69 -> 70 ;
71 [label="gini = 0.444\nsamples = 6\nvalue = [2, 4]"] ;
69 -> 71 ;
72 [label="gini = 0.0\nsamples = 12\nvalue = [12, 0]"] ;
52 -> 72 ;
73 [label="X[5] <= 8.356\ngini = 0.32\nsamples = 40\nvalue = [32, 8]"] ;
51 -> 73 ;
74 [label="X[5] <= 7.763\ngini = 0.198\nsamples = 27\nvalue = [24, 3]"] ;
73 -> 74 ;
75 [label="X[2] <= 29.5\ngini = 0.375\nsamples = 8\nvalue = [6, 2]"] ;
74 -> 75 ;
76 [label="gini = 0.5\nsamples = 4\nvalue = [2, 2]"] ;
75 -> 76 ;
77 [label="gini = 0.0\nsamples = 4\nvalue = [4, 0]"] ;
75 -> 77 ;
78 [label="X[2] <= 28.5\ngini = 0.1\nsamples = 19\nvalue = [18, 1]"] ;
74 -> 78 ;
79 [label="gini = 0.0\nsamples = 11\nvalue = [11, 0]"] ;
78 -> 79 ;
80 [label="gini = 0.219\nsamples = 8\nvalue = [7, 1]"] ;
78 -> 80 ;
81 [label="X[3] <= 0.5\ngini = 0.473\nsamples = 13\nvalue = [8, 5]"] ;
73 -> 81 ;
82 [label="X[5] <= 14.144\ngini = 0.469\nsamples = 8\nvalue = [3, 5]"] ;
81 -> 82 ;
83 [label="gini = 0.375\nsamples = 4\nvalue = [1, 3]"] ;
82 -> 83 ;
84 [label="gini = 0.5\nsamples = 4\nvalue = [2, 2]"] ;
82 -> 84 ;
85 [label="gini = 0.0\nsamples = 5\nvalue = [5, 0]"] ;
81 -> 85 ;
86 [label="X[5] <= 13.175\ngini = 0.463\nsamples = 11\nvalue = [7, 4]"] ;
42 -> 86 ;
87 [label="gini = 0.408\nsamples = 7\nvalue = [5, 2]"] ;
86 -> 87 ;
88 [label="gini = 0.5\nsamples = 4\nvalue = [2, 2]"] ;
86 -> 88 ;
89 [label="X[5] <= 13.25\ngini = 0.124\nsamples = 90\nvalue = [84, 6]"] ;
41 -> 89 ;
90 [label="X[5] <= 7.91\ngini = 0.175\nsamples = 62\nvalue = [56, 6]"] ;
89 -> 90 ;
91 [label="gini = 0.0\nsamples = 27\nvalue = [27, 0]"] ;
90 -> 91 ;
92 [label="X[5] <= 7.988\ngini = 0.284\nsamples = 35\nvalue = [29, 6]"] ;
90 -> 92 ;
93 [label="gini = 0.5\nsamples = 4\nvalue = [2, 2]"] ;
92 -> 93 ;
94 [label="X[5] <= 12.938\ngini = 0.225\nsamples = 31\nvalue = [27, 4]"] ;
92 -> 94 ;
95 [label="X[2] <= 44.5\ngini = 0.153\nsamples = 24\nvalue = [22, 2]"] ;
94 -> 95 ;
96 [label="gini = 0.0\nsamples = 15\nvalue = [15, 0]"] ;
95 -> 96 ;
97 [label="X[0] <= 2.5\ngini = 0.346\nsamples = 9\nvalue = [7, 2]"] ;
95 -> 97 ;
98 [label="gini = 0.32\nsamples = 5\nvalue = [4, 1]"] ;
97 -> 98 ;
99 [label="gini = 0.375\nsamples = 4\nvalue = [3, 1]"] ;
97 -> 99 ;
100 [label="gini = 0.408\nsamples = 7\nvalue = [5, 2]"] ;
94 -> 100 ;
101 [label="gini = 0.0\nsamples = 28\nvalue = [28, 0]"] ;
89 -> 101 ;
102 [label="X[0] <= 2.5\ngini = 0.374\nsamples = 245\nvalue = [61, 184]"] ;
0 -> 102 [labeldistance=2.5, labelangle=-45, headlabel="False"] ;
103 [label="X[5] <= 28.856\ngini = 0.102\nsamples = 148\nvalue = [8, 140]"] ;
102 -> 103 ;
104 [label="X[2] <= 37.0\ngini = 0.192\nsamples = 65\nvalue = [7, 58]"] ;
103 -> 104 ;
105 [label="X[2] <= 27.5\ngini = 0.124\nsamples = 45\nvalue = [3, 42]"] ;
104 -> 105 ;
106 [label="X[2] <= 25.5\ngini = 0.219\nsamples = 24\nvalue = [3, 21]"] ;
105 -> 106 ;
107 [label="X[5] <= 13.75\ngini = 0.095\nsamples = 20\nvalue = [1, 19]"] ;
106 -> 107 ;
108 [label="gini = 0.278\nsamples = 6\nvalue = [1, 5]"] ;
107 -> 108 ;
109 [label="gini = 0.0\nsamples = 14\nvalue = [0, 14]"] ;
107 -> 109 ;
110 [label="gini = 0.5\nsamples = 4\nvalue = [2, 2]"] ;
106 -> 110 ;
111 [label="gini = 0.0\nsamples = 21\nvalue = [0, 21]"] ;
105 -> 111 ;
112 [label="X[4] <= 0.5\ngini = 0.32\nsamples = 20\nvalue = [4, 16]"] ;
104 -> 112 ;
113 [label="X[5] <= 25.965\ngini = 0.375\nsamples = 16\nvalue = [4, 12]"] ;
112 -> 113 ;
114 [label="X[5] <= 13.25\ngini = 0.298\nsamples = 11\nvalue = [2, 9]"] ;
113 -> 114 ;
115 [label="gini = 0.444\nsamples = 6\nvalue = [2, 4]"] ;
114 -> 115 ;
116 [label="gini = 0.0\nsamples = 5\nvalue = [0, 5]"] ;
114 -> 116 ;
117 [label="gini = 0.48\nsamples = 5\nvalue = [2, 3]"] ;
113 -> 117 ;
118 [label="gini = 0.0\nsamples = 4\nvalue = [0, 4]"] ;
112 -> 118 ;
119 [label="X[2] <= 10.0\ngini = 0.024\nsamples = 83\nvalue = [1, 82]"] ;
103 -> 119 ;
120 [label="gini = 0.375\nsamples = 4\nvalue = [1, 3]"] ;
119 -> 120 ;
121 [label="gini = 0.0\nsamples = 79\nvalue = [0, 79]"] ;
119 -> 121 ;
122 [label="X[5] <= 23.087\ngini = 0.496\nsamples = 97\nvalue = [53, 44]"] ;
102 -> 122 ;
123 [label="X[2] <= 6.5\ngini = 0.498\nsamples = 79\nvalue = [37, 42]"] ;
122 -> 123 ;
124 [label="X[5] <= 12.946\ngini = 0.165\nsamples = 11\nvalue = [1, 10]"] ;
123 -> 124 ;
125 [label="gini = 0.375\nsamples = 4\nvalue = [1, 3]"] ;
124 -> 125 ;
126 [label="gini = 0.0\nsamples = 7\nvalue = [0, 7]"] ;
124 -> 126 ;
127 [label="X[5] <= 7.742\ngini = 0.498\nsamples = 68\nvalue = [36, 32]"] ;
123 -> 127 ;
128 [label="X[5] <= 7.373\ngini = 0.219\nsamples = 8\nvalue = [1, 7]"] ;
127 -> 128 ;
129 [label="gini = 0.375\nsamples = 4\nvalue = [1, 3]"] ;
128 -> 129 ;
130 [label="gini = 0.0\nsamples = 4\nvalue = [0, 4]"] ;
128 -> 130 ;
131 [label="X[4] <= 1.5\ngini = 0.486\nsamples = 60\nvalue = [35, 25]"] ;
127 -> 131 ;
132 [label="X[2] <= 36.5\ngini = 0.47\nsamples = 53\nvalue = [33, 20]"] ;
131 -> 132 ;
133 [label="X[5] <= 7.888\ngini = 0.482\nsamples = 47\nvalue = [28, 19]"] ;
132 -> 133 ;
134 [label="X[2] <= 23.5\ngini = 0.497\nsamples = 13\nvalue = [6, 7]"] ;
133 -> 134 ;
135 [label="X[5] <= 7.763\ngini = 0.444\nsamples = 9\nvalue = [3, 6]"] ;
134 -> 135 ;
136 [label="gini = 0.375\nsamples = 4\nvalue = [1, 3]"] ;
135 -> 136 ;
137 [label="gini = 0.48\nsamples = 5\nvalue = [2, 3]"] ;
135 -> 137 ;
138 [label="gini = 0.375\nsamples = 4\nvalue = [3, 1]"] ;
134 -> 138 ;
139 [label="X[2] <= 30.5\ngini = 0.457\nsamples = 34\nvalue = [22, 12]"] ;
133 -> 139 ;
140 [label="X[5] <= 15.975\ngini = 0.408\nsamples = 28\nvalue = [20, 8]"] ;
139 -> 140 ;
141 [label="X[2] <= 27.5\ngini = 0.444\nsamples = 24\nvalue = [16, 8]"] ;
140 -> 141 ;
142 [label="X[2] <= 24.5\ngini = 0.48\nsamples = 20\nvalue = [12, 8]"] ;
141 -> 142 ;
143 [label="X[2] <= 19.0\ngini = 0.43\nsamples = 16\nvalue = [11, 5]"] ;
142 -> 143 ;
144 [label="X[2] <= 16.0\ngini = 0.5\nsamples = 8\nvalue = [4, 4]"] ;
143 -> 144 ;
145 [label="gini = 0.5\nsamples = 4\nvalue = [2, 2]"] ;
144 -> 145 ;
146 [label="gini = 0.5\nsamples = 4\nvalue = [2, 2]"] ;
144 -> 146 ;
147 [label="gini = 0.219\nsamples = 8\nvalue = [7, 1]"] ;
143 -> 147 ;
148 [label="gini = 0.375\nsamples = 4\nvalue = [1, 3]"] ;
142 -> 148 ;
149 [label="gini = 0.0\nsamples = 4\nvalue = [4, 0]"] ;
141 -> 149 ;
150 [label="gini = 0.0\nsamples = 4\nvalue = [4, 0]"] ;
140 -> 150 ;
151 [label="gini = 0.444\nsamples = 6\nvalue = [2, 4]"] ;
139 -> 151 ;
152 [label="gini = 0.278\nsamples = 6\nvalue = [5, 1]"] ;
132 -> 152 ;
153 [label="gini = 0.408\nsamples = 7\nvalue = [2, 5]"] ;
131 -> 153 ;
154 [label="X[5] <= 31.331\ngini = 0.198\nsamples = 18\nvalue = [16, 2]"] ;
122 -> 154 ;
155 [label="gini = 0.0\nsamples = 10\nvalue = [10, 0]"] ;
154 -> 155 ;
156 [label="X[3] <= 1.5\ngini = 0.375\nsamples = 8\nvalue = [6, 2]"] ;
154 -> 156 ;
157 [label="gini = 0.375\nsamples = 4\nvalue = [3, 1]"] ;
156 -> 157 ;
158 [label="gini = 0.375\nsamples = 4\nvalue = [3, 1]"] ;
156 -> 158 ;
}